id,0,1,2,3,4,5,6,7,8,9,10,11,12,13,14,15,16,17,18,19,20,21,22,23,24,25,26,27,28,29,30,31,32,33,34,35,36,37,38,39,40,41,42,43,44,45,46,47,48,49,50,51,52,53,54,55,56,57,58,59,60,61,62,63,64,65,66,67,68,69,70,71,72,73,74,75,76,77,78,79,80,81,82,83,84,85,86,87,88,89,90,91,92,93,94,95,96,97,98,99,100,101,102,103,104,105,106,107,108,109,110,111,112,113,114,115,116,117,118,119,120,121,122,123,124,125,126,127
2f7da894-805f-41be-ad5d-d75d7a634af8,0.32552164793014526,1.115350604057312,-2.015531539916992,0.6977103352546692,-0.0015118992887437344,1.7765556573867798,0.1815270632505417,-0.7782201766967773,-0.4812057614326477,0.5786839723587036,-0.10440406948328018,-2.1319804191589355,-0.8202823996543884,-1.9109658002853394,1.765740156173706,1.5451440811157227,0.4993738532066345,-1.183332920074463,-0.24456903338432312,-0.24085059762001038,-0.6514849662780762,2.585904598236084,-1.0001863241195679,0.9161322712898254,1.5414117574691772,-0.5283044576644897,0.26923200488090515,-0.006538808345794678,1.0377402305603027,1.8003243207931519,1.672043800354004,-2.3539111614227295,1.1011139154434204,0.1492626667022705,2.8448474407196045,-0.4552209973335266,0.158050075173378,0.3132981061935425,2.775763988494873,0.006589785218238831,-1.2978136539459229,0.16152800619602203,-1.2030012607574463,-0.6998686790466309,0.6354601383209229,-0.9468170404434204,-0.49397096037864685,-0.5715248584747314,0.6150251030921936,-0.949787974357605,0.18296504020690918,0.5903341770172119,1.9734728336334229,-0.19538909196853638,-0.8100007176399231,1.0177366733551025,1.993000864982605,-1.7599353790283203,-0.2758733928203583,0.09397179633378983,0.7063694000244141,-0.021629132330417633,0.11445266008377075,-0.7197542786598206,0.7082089781761169,-0.624981164932251,1.70810067653656,-0.061243198812007904,-1.8733128309249878,-0.35805419087409973,1.6701017618179321,-0.3782874047756195,-1.9838738441467285,-2.3921000957489014,1.0777982473373413,1.3905699253082275,0.4655745327472687,2.0626959800720215,0.37428778409957886,1.5101689100265503,0.3321019411087036,1.450264573097229,0.16360996663570404,0.8932863473892212,1.3639304637908936,-0.4998968839645386,-0.6174073815345764,-0.13160355389118195,-1.3923263549804688,-1.913820743560791,0.5887002348899841,0.5593743324279785,-1.3587743043899536,1.6159552335739136,-0.6975046396255493,-1.1196777820587158,-1.927350640296936,-1.178301453590393,-0.2852347493171692,0.787358283996582,0.6606927514076233,-0.15258511900901794,-1.1618435382843018,1.0115677118301392,-0.4493916928768158,0.6372517347335815,-2.0496647357940674,-0.9402414560317993,-0.45413172245025635,0.3509227931499481,-1.1532748937606812,-0.32853633165359497,0.11141809821128845,-0.5083730816841125,-0.6941390037536621,-1.1069484949111938,-0.5583393573760986,0.04686970263719559,-0.5168887376785278,2.275722026824951,2.806058168411255,-0.5439562797546387,1.0250660181045532,-0.87117999792099,0.9597970247268677,-0.17735280096530914,0.4922199845314026,-1.2215182781219482
