0,1,2,3,4,5,6,7,8,9,10,11,12,13,14,15,16,17,18,19,20,21,22,23,24,25,26,27,28,29,30,31,32,33,34,35,36,37,38,39,40,41,42,43,44,45,46,47,48,49,50,51,52,53,54,55,56,57,58,59,60,61,62,63,64,65,66,67,68,69,70,71,72,73,74,75,76,77,78,79,80,81,82,83,84,85,86,87,88,89,90,91,92,93,94,95,96,97,98,99,100,101,102,103,104,105,106,107,108,109,110,111,112,113,114,115,116,117,118,119,120,121,122,123,124,125,126,127,128
ab07d5b4-dfbe-4518-a095-bcf0249bff1a,-0.031760260462760925,1.226877212524414,-1.8069442510604858,-0.17387673258781433,1.3264844417572021,1.5444247722625732,-0.12759897112846375,-0.3659785985946655,-0.8505035638809204,0.6797342300415039,1.274897575378418,-0.993247926235199,0.6092953085899353,-2.4391465187072754,2.2811756134033203,2.0310585498809814,0.4798477292060852,-1.2099480628967285,0.23832334578037262,0.36019182205200195,-1.2208369970321655,2.712385416030884,-0.16133318841457367,0.9120617508888245,0.34268271923065186,0.10084943473339081,0.554790735244751,0.25929754972457886,0.042952701449394226,1.1276819705963135,1.5715444087982178,-1.7593680620193481,1.8705179691314697,-0.8208226561546326,2.4394631385803223,-0.3781861662864685,1.8325793743133545,0.6712058186531067,2.484212875366211,0.0895155742764473,-1.2165948152542114,0.24274420738220215,-0.7130731344223022,-0.7147482633590698,-0.14420823752880096,-1.0920268297195435,-0.9701515436172485,-0.7954115867614746,1.0423434972763062,-0.010209079831838608,0.6199791431427002,1.5935375690460205,1.5735857486724854,0.1085369661450386,-0.838756799697876,1.2589030265808105,0.9964109659194946,-1.7340506315231323,-0.981372594833374,-0.22593280673027039,1.1179888248443604,0.09586845338344574,0.480274498462677,-0.15342938899993896,0.07070229202508926,-1.1291626691818237,1.7444325685501099,0.25725021958351135,-1.4202942848205566,0.20837871730327606,1.0757495164871216,-0.27525320649147034,-2.123650312423706,-2.007277011871338,1.4013779163360596,0.9998294115066528,-0.4328702986240387,1.3920069932937622,-1.0461435317993164,0.5090340375900269,0.06067105382680893,1.695223093032837,-0.725797176361084,1.9455667734146118,1.1189934015274048,-0.3547753095626831,-0.48523855209350586,0.2026289850473404,-1.483656644821167,-2.7078630924224854,-0.6134229898452759,-0.5065609216690063,0.11027717590332031,0.9789694547653198,-0.0051138028502464294,-0.956304669380188,-1.3772468566894531,-1.2646592855453491,-0.9268759489059448,-0.25940290093421936,0.8692559599876404,-0.36678799986839294,-1.2149118185043335,-0.11221785098314285,-0.6134812831878662,0.8964989185333252,-1.6975812911987305,-1.6289212703704834,0.4494272768497467,0.992842972278595,-1.691300868988037,0.6912744641304016,0.5550273060798645,-0.3662390410900116,-0.4055919945240021,-0.5633053779602051,-1.7205071449279785,-1.0715616941452026,-0.7882072329521179,2.129462242126465,1.3044480085372925,-1.3808058500289917,2.058816432952881,-0.44081777334213257,1.8393198251724243,-0.7659050226211548,0.9939330220222473,0.35278359055519104
